digraph Tree {
node [shape=box, style="filled, rounded", color="black", fontname="helvetica"] ;
edge [fontname="helvetica"] ;
0 [label="genreEncoded <= 2.5\nentropy = 1.0\nsamples = 635\nvalue = [494.0, 493.5]\nclass = No", fillcolor="#ffffff"] ;
1 [label="moodEncoded <= 5.5\nentropy = 0.574\nsamples = 232\nvalue = [222, 35]\nclass = No", fillcolor="#e99558"] ;
0 -> 1 [labeldistance=2.5, labelangle=45, headlabel="True"] ;
2 [label="moodEncoded <= 2.5\nentropy = 0.478\nsamples = 221\nvalue = [214.0, 24.5]\nclass = No", fillcolor="#e88f50"] ;
1 -> 2 ;
3 [label="entropy = 0.934\nsamples = 15\nvalue = [13, 7]\nclass = No", fillcolor="#f3c5a4"] ;
2 -> 3 ;
4 [label="moodEncoded <= 3.5\nentropy = 0.403\nsamples = 206\nvalue = [201.0, 17.5]\nclass = No", fillcolor="#e78c4a"] ;
2 -> 4 ;
5 [label="entropy = 0.0\nsamples = 37\nvalue = [37, 0]\nclass = No", fillcolor="#e58139"] ;
4 -> 5 ;
6 [label="entropy = 0.458\nsamples = 169\nvalue = [164.0, 17.5]\nclass = No", fillcolor="#e88e4e"] ;
4 -> 6 ;
7 [label="entropy = 0.987\nsamples = 11\nvalue = [8.0, 10.5]\nclass = N1 Billboard", fillcolor="#d0e8f9"] ;
1 -> 7 ;
8 [label="artist_typeEncoded <= 2.5\nentropy = 0.952\nsamples = 403\nvalue = [272.0, 458.5]\nclass = N1 Billboard", fillcolor="#aed7f4"] ;
0 -> 8 [labeldistance=2.5, labelangle=-45, headlabel="False"] ;
9 [label="moodEncoded <= 5.5\nentropy = 0.871\nsamples = 183\nvalue = [108.0, 262.5]\nclass = N1 Billboard", fillcolor="#8ac5f0"] ;
8 -> 9 ;
10 [label="moodEncoded <= 1.5\nentropy = 0.903\nsamples = 153\nvalue = [95, 203]\nclass = N1 Billboard", fillcolor="#96cbf1"] ;
9 -> 10 ;
11 [label="entropy = 0.996\nsamples = 20\nvalue = [15.0, 17.5]\nclass = N1 Billboard", fillcolor="#e3f1fb"] ;
10 -> 11 ;
12 [label="entropy = 0.883\nsamples = 133\nvalue = [80.0, 185.5]\nclass = N1 Billboard", fillcolor="#8ec7f0"] ;
10 -> 12 ;
13 [label="artist_typeEncoded <= 1.5\nentropy = 0.679\nsamples = 30\nvalue = [13.0, 59.5]\nclass = N1 Billboard", fillcolor="#64b2eb"] ;
9 -> 13 ;
14 [label="entropy = -0.036\nsamples = 14\nvalue = [4, 35]\nclass = N1 Billboard", fillcolor="#50a8e8"] ;
13 -> 14 ;
15 [label="entropy = 0.991\nsamples = 16\nvalue = [9.0, 24.5]\nclass = N1 Billboard", fillcolor="#82c1ef"] ;
13 -> 15 ;
16 [label="moodEncoded <= 3.5\nentropy = 0.994\nsamples = 220\nvalue = [164, 196]\nclass = N1 Billboard", fillcolor="#dfeffb"] ;
8 -> 16 ;
17 [label="genreEncoded <= 3.5\nentropy = 0.966\nsamples = 77\nvalue = [65, 42]\nclass = No", fillcolor="#f6d2b9"] ;
16 -> 17 ;
18 [label="entropy = 0.641\nsamples = 19\nvalue = [18.0, 3.5]\nclass = No", fillcolor="#ea9a5f"] ;
17 -> 18 ;
19 [label="entropy = 0.993\nsamples = 58\nvalue = [47.0, 38.5]\nclass = No", fillcolor="#fae8db"] ;
17 -> 19 ;
20 [label="moodEncoded <= 5.5\nentropy = 0.966\nsamples = 143\nvalue = [99, 154]\nclass = N1 Billboard", fillcolor="#b8dcf6"] ;
16 -> 20 ;
21 [label="entropy = 0.986\nsamples = 113\nvalue = [82.0, 108.5]\nclass = N1 Billboard", fillcolor="#cfe7f9"] ;
20 -> 21 ;
22 [label="entropy = 0.844\nsamples = 30\nvalue = [17.0, 45.5]\nclass = N1 Billboard", fillcolor="#83c2ef"] ;
20 -> 22 ;
}